{"W0": [[2.0586334774928807, -1.7895071480838092], [0.5861561180862652, 0.844643682855037], [0.18320221979740417, -0.1681241814631863], [-0.9231072526147656, 0.9062329028576622], [0.020897865841068546, -0.04262969286125617], [-0.3599778216675044, 1.3329126216567666], [-0.44700868109333597, 0.4243558475281318], [0.7890824393691284, 0.32905985420580075], [0.34106629611838774, -0.31427118803035176], [1.497237382803414, 0.05201273138131333], [0.18956934258182453, -0.16269371668095467], [-0.49424800067956715, 0.47778204306919264]], "b0": [0.1763752564320298, -1.2078439934589527, 0.335940029696688, 0.6513350846346567, 0.29465963900830316, 0.28538239382710046, 0.7540596254659608, -0.48500925865339795, -0.08041911692322155, -0.2612341915070256, 0.3514334349875394, 1.2690912048849272], "W1": [[1.1322553959766968, -0.12397983928469428, 0.1834494185229546, 1.0534598749453017, 0.12419889840730249, 0.40451193799022217, 0.5879781297279868, -0.2788819385220418, 0.21493843486556205, -0.716539656308491, 0.08599837832928056, 0.6704440253427885], [0.24673801899445783, -0.32721779826423597, 0.34867572354553544, 0.7318365135608862, 0.2745080208512723, 0.233286673616274, 0.5503471154594205, -0.2002081477647523, 0.25927842555539526, -0.3450422944290929, 0.37053900443497595, 0.8396428977606392], [-1.0497676047912992, -0.5712763409569741, 0.569811796986121, 0.16104360229676026, 0.4655815467312017, 0.1607577476382129, 0.5306114574780179, -0.05549470543550114, 0.42751693811664343, 0.05851369601559802, 0.6216617859618979, 0.7115536866469675], [0.8265628019536322, 0.03045017056630593, -0.20427979058266033, -0.7598868198931045, -0.32261724081355714, -1.2631728369438673, -0.5976031419996425, 0.21494950367992127, 0.043723537068798245, 0.6954649500428854, -0.2700071003065114, -0.8529376368553498], [-1.273517329768091, 1.0698628280661506, -0.9913075416907833, -1.292089090140704, -0.46862356893772933, 0.4965998634483892, -1.097001074318354, 0.41058982625441703, -0.8314200236866466, 0.3605175132177769, -0.9164687756452643, -1.430749887900374]], "b1": [0.41719946112855866, 0.7043832612799286, 0.8897596096044891, -0.5066692250563231, -1.448996311613293]}