{"W0": [[0.7209725284484572, -0.6066952096990271], [0.1759079069869868, 0.7578431582170704], [0.11926987266857916, -0.17812468762893427], [-0.5087344458473233, 0.5453946245452893], [-0.18127373949625056, -0.25248364679619584], [-0.24654137217545846, 1.1110050003481764], [-0.41779123326762463, 0.38118511704018526], [1.0312923383757222, 0.0006766538731569655], [0.5869477451472659, -0.4560600471822057], [0.9547442079294375, 0.06820432070749598], [0.3075745825123703, -0.3098972655041941], [-0.37844576627821125, 0.37258636420018015]], "b0": [-0.08845663116113675, -0.5524110342843626, -0.10660427034687012, 0.021734680799570975, 0.11348809435302665, 0.21378088803024983, 0.23117354787317299, -0.4166881935672392, -0.34403571941783806, 0.22684573786843487, -0.027909737414108488, 0.2744023615015261], "W1": [[0.044117445005083064, -0.026742358015025877, 0.18622959811073772, 0.36980254653468025, 0.12701712952934335, 0.2610637449385212, 0.3490977565020672, -0.2678184104734362, 0.09250488064970197, -0.1794822832668278, 0.08705742014233964, 0.3373390371816139], [-0.14130061496045815, 0.02815865640491517, 0.03048109329372478, 0.2437375642962118, 0.06426094706694292, 0.23619258031073678, 0.15679606225764348, -0.20533546857586424, -0.07695031127882201, -0.12563568497239844, 0.04440793788134742, 0.31289481372986094], [0.4387172810093806, -0.42133277883392295, -0.037009418384799514, -0.6299433310887943, -0.01805474605847572, -0.9625468926713722, -0.3016123640937959, 0.6040535000638829, 0.46385478351154064, 0.3995512621365432, 0.12987437039572727, -0.4975709784990164], [-0.5950555049478795, 0.49835224039435927, -0.4255597040270009, -0.44895850005994864, -0.2854780565968663, 0.24134262974272594, -0.6260751289649823, 0.2542980822886578, -0.4663528410937101, 0.1573767354125965, -0.5721096502058575, -0.5687689307645545], [0.13579267625926877, -0.0005967398237777053, 0.15220803778850495, 0.3597258010869923, 0.18530238229754611, 0.25593132342862085, 0.39612616064649775, -0.29424316509119836, 0.10098080013104262, -0.19889582077123558, 0.20249321456082245, 0.3540591433467688]], "b1": [0.4396095893401148, 0.24512873219790957, -0.2348311870317068, -0.7510186703712186, 0.3567883312082591]}