{"W0": [[2.0586089240696945, -1.7895314518460441], [0.5861477923661126, 0.8446314077678397], [0.18320546904647356, -0.16811911342700128], [-0.9231263876016053, 0.9062070494815613], [0.020901064036560977, -0.04262469375522707], [-0.35998952738224166, 1.332899588870153], [-0.44701343939767896, 0.42435092615496756], [0.7890895913447626, 0.3290683516535572], [0.3410668854797686, -0.3142700809190468], [1.4972621131746013, 0.05204322704029822], [0.18957564325438878, -0.16268464575500735], [-0.49424960298521775, 0.4777827278218873]], "b0": [0.17636834987489777, -1.2078469454004923, 0.33594124966418715, 0.6513290937270184, 0.29466080678808426, 0.28537900455337334, 0.7540584051251848, -0.4850071847870407, -0.08041883255407511, -0.2612267057480277, 0.351435624944293, 1.2690912458635581], "W1": [[1.1322425183271367, -0.12403460557874701, 0.18343866873990158, 1.0534356918730452, 0.12418846524850681, 0.40444994578797405, 0.5879592661255357, -0.2789267288875446, 0.21493084425769923, -0.7166012411318716, 0.08598720146946769, 0.6704189822036708], [0.24674471011235624, -0.3271857706617814, 0.348681966416246, 0.7318519584844395, 0.27451420104156593, 0.23332426564557213, 0.5503588157131083, -0.20018240274871107, 0.2592827310849322, -0.34500751317072903, 0.37054549396885184, 0.8396583852107854], [-1.0497644922224805, -0.5712581593639626, 0.569815284067386, 0.16105159569392594, 0.4655849671538314, 0.16077849212946496, 0.5306177132410734, -0.05547995813166024, 0.4275193455250294, 0.05853382502497256, 0.6216654126277479, 0.7115620072275971], [0.8265653725793422, 0.03045290910718015, -0.20427907350929794, -0.7598865088020671, -0.3226166780126686, -1.2631708739120961, -0.5976026345761138, 0.21495225635735127, 0.043724183750602566, 0.6954693898284243, -0.2700063560820853, -0.8529369423803103], [-1.2735168264309642, 1.06986464662386, -0.9913072389330686, -1.2920886564802005, -0.46862329919274615, 0.4966015560983138, -1.0970006741561709, 0.41059137162260745, -0.8314197926985104, 0.3605197479878816, -0.9164684592096008, -1.4307493472670718]], "b1": [0.4171862451101141, 0.7043911141592186, 0.8897639527343021, -0.5066685460554472, -1.4489959706048305]}