{"W0": [[2.187289876159266, -1.8070118221084366], [1.1342012277125044, 0.7386464141639506], [0.2430671980390875, -0.24552390044439376], [-1.1719022632168692, 1.1215347715053332], [-0.4041702712553977, -0.5240927450633139], [-0.25542431043786845, 1.3828281073951751], [-0.4937478186656954, 0.3719539307834471], [-0.00709847978074804, 0.008127141268697721], [0.2360368604586913, -0.2226703288313113], [1.2320933452832068, -0.11742393758695749], [0.1919519573621367, -0.1642900181956525], [-0.47629810094207403, 0.47056278884998315]], "b0": [0.04512166981931089, -2.2519139367086995, 0.044473872816268904, 0.3807770177053518, 0.1055683400385027, 0.5007652681436104, 0.09011517841978933, 0.09597063689079097, -0.3127899945405149, 0.6795142457097816, -0.058794094909221925, 1.393958375506249], "W1": [[0.9724488717517654, -0.5269233593480812, 0.25759508633259387, 1.1188550366009045, 0.2102771019376197, 0.40665897140923163, 0.4204390939374641, 0.06731552064885575, 0.3670127977889694, -0.5274400288382539, -0.08223694560644598, 0.5692545166204553], [0.12906581635678244, -0.6935613000101395, 0.1045117299910453, 0.7211429606963226, 0.09092151028369654, 0.2449532541949652, 0.09295862741551353, 0.35825301095045803, 0.18803361316043335, 0.06698591750175328, 0.1216750047818273, 0.9882841694985821], [-1.2689840589527817, -0.9430227015592197, 0.33330341373678474, -0.23136580410646337, 0.1774943964472115, 0.44646507169740907, 0.15342053408214731, 0.7133930413269977, 0.5695540310770085, 0.5859888649040147, 0.4456723247881072, 0.6547874936476625], [0.9717501910670018, 0.6301548741256576, -0.1623883117009775, -0.5201582904518277, -0.3389890814046297, -1.3062793874555094, -0.45391185826323754, -0.33932266576624215, -0.09683396928800954, 0.4289269401985889, -0.4221987863235883, -0.8316265007039805], [-1.2121050611289004, 1.8029947621328979, -0.8574363967670929, -1.4544074611631161, 0.11334057669388455, 0.31899578838539006, -0.3018212726723253, -0.484563144435625, -0.6327296363312176, -0.3711614985035302, -0.4379931140219705, -1.595636497546987]], "b1": [0.6400286246328262, 0.6866849016421255, 0.7642149624728951, -0.4978281044369525, -1.4002303076362728]}