{"W0": [[1.7638874618952265, -1.721489531515014], [0.28265255937740064, 0.8541781046252683], [0.102800064101322, -0.16844878491502965], [-1.0898652795759765, 0.7430719910413085], [-0.03256422723497349, -0.04453782960994825], [-0.5578013212491507, 0.8605099181149365], [-0.7499104733713851, 0.4638923683349704], [1.4602048675075046, 0.0874337125020073], [0.9896215029955664, -1.097766668153252], [0.7228552424193393, -0.24296676063407444], [0.35783065427287136, -0.453641809717214], [-0.5990378581476795, 0.3412530818610363]], "b0": [0.27298940315223474, -1.1065604902463342, 0.42728005965862925, 0.42556166787843963, 0.6980254474621285, 0.34802500077613757, 0.8534017401004497, -1.3849299091074831, -0.12071177780108762, 0.007482893809448818, 0.5102028496301718, 1.0943072928544788], "W1": [[0.3775971910840549, -0.5504986305982392, 0.5936879026824684, 0.6160160639247152, 0.5759166907905744, 0.3099570318460927, 0.8702917307441468, -0.787569582136507, 0.26123786741091115, -0.07952395948882793, 0.5392267157052498, 1.0431605750059727], [-0.9815596932610375, 0.25494873953677755, 0.4545251584585646, -0.06228196567539501, 0.5808378137241299, 0.37305674256601346, -0.02404467925033548, -0.12143391260887645, -0.29974806348155103, 0.22193949824015144, 0.31410582946119814, 0.06854115162898722], [0.5177377240355716, -0.43417066350162936, -0.28288300469421884, -0.9261728440249001, -0.31826734742009527, -1.3813547321918422, -0.6872083503443502, 0.8595515841748935, 0.4790868768787647, 0.31921331112638485, -0.08929879294816152, -0.9365442861723927], [-1.1274165634584024, 1.1070653042012322, -1.0587927340727907, -0.850487484858564, -1.0383451272165733, 0.3063786135876566, -1.0770881567467718, 1.0373859057586081, -0.9485064278857515, 0.005959761249773664, -1.2375278933646967, -1.0610935535735164], [1.0959126239651904, -0.29950572951158877, 0.1998122844071484, 1.1172903114032582, 0.27290562636044124, 0.42394572994132473, 0.8923819419447209, -0.8969794569760443, 0.6219670589973589, -0.41467440258879723, 0.3652174339207719, 0.8238891981056266]], "b1": [0.732593590351145, 1.357736905010617, -0.546603352346481, -1.6988367982589796, 0.21078645058708803]}